
\data\
ngram 1=12

\1-grams:
-1.161368	</s>
-0.5081555	<UNK>
-99	<s>
-1.161368	ba
-1.161368	ba4y
-1.161368	bo85n
-1.161368	chi5n
-1.161368	hai
-1.161368	mo86t
-1.161368	na7m
-1.161368	sa5u
-1.161368	ta5m

\end\
