
\data\
ngram 1=12

\1-grams:
-0.6720979	</s>
-0.3933443	<UNK>
-99	<s>
-1.371068	ba
-1.371068	ba4y
-1.371068	bo85n
-1.371068	chi5n
-1.371068	hai
-1.371068	mo86t
-1.371068	na7m
-1.371068	sa5u
-1.371068	ta5m

\end\
